|--- system.cpu.commit.op_class_0::FloatAdd <= 0.00
|   |--- weights: [0.00, 8.00] class: 1
|--- system.cpu.commit.op_class_0::FloatAdd >  0.00
|   |--- system.cpu.rename.LQFullEvents <= 0.03
|   |   |--- weights: [50.00, 0.00] class: 0
|   |--- system.cpu.rename.LQFullEvents >  0.03
|   |   |--- weights: [0.00, 4.00] class: 1
