|--- system.cpu.commit.op_class_0::FloatAdd <= -0.18
|   |--- weights: [0.00, 36.00] class: 1
|--- system.cpu.commit.op_class_0::FloatAdd >  -0.18
|   |--- system.l2.ReadSharedReq_accesses::total <= -0.04
|   |   |--- weights: [193.00, 0.00] class: 0
|   |--- system.l2.ReadSharedReq_accesses::total >  -0.04
|   |   |--- weights: [0.00, 22.00] class: 1
