|--- system.cpu.rename.serializingInsts <= 0.00
|   |--- system.cpu.commit.op_class_0::FloatAdd <= 0.00
|   |   |--- weights: [0.00, 11.00] class: 1
|   |--- system.cpu.commit.op_class_0::FloatAdd >  0.00
|   |   |--- weights: [193.00, 0.00] class: 0
|--- system.cpu.rename.serializingInsts >  0.00
|   |--- system.l2.UpgradeReq_accesses::total <= 0.02
|   |   |--- weights: [0.00, 39.00] class: 1
|   |--- system.l2.UpgradeReq_accesses::total >  0.02
|   |   |--- weights: [7.00, 0.00] class: 0
