|--- system.cpu.rename.serializingInsts <= 0.00
|   |--- system.cpu.commit.op_class_0::FloatAdd <= 0.00
|   |   |--- weights: [0.00, 5.00] class: 1
|   |--- system.cpu.commit.op_class_0::FloatAdd >  0.00
|   |   |--- weights: [46.00, 0.00] class: 0
|--- system.cpu.rename.serializingInsts >  0.00
|   |--- weights: [0.00, 11.00] class: 1
