|--- system.cpu.commit.op_class_0::FloatAdd <= 0.00
|   |--- weights: [0.00, 43.00] class: 1
|--- system.cpu.commit.op_class_0::FloatAdd >  0.00
|   |--- system.cpu.commit.op_class_0::FloatCvt <= 0.27
|   |   |--- weights: [192.00, 0.00] class: 0
|   |--- system.cpu.commit.op_class_0::FloatCvt >  0.27
|   |   |--- weights: [0.00, 15.00] class: 1
