|--- system.cpu.commit.op_class_0::FloatAdd <= 0.00
|   |--- weights: [0.00, 77.00] class: 1
|--- system.cpu.commit.op_class_0::FloatAdd >  0.00
|   |--- system.cpu.dcache.blocked_cycles::no_mshrs <= 0.57
|   |   |--- weights: [377.00, 0.00] class: 0
|   |--- system.cpu.dcache.blocked_cycles::no_mshrs >  0.57
|   |   |--- weights: [0.00, 47.00] class: 1
