|--- system.cpu.rename.serializingInsts <= 0.00
|   |--- system.cpu.commit.op_class_0::FloatAdd <= 0.00
|   |   |--- weights: [0.00, 42.00] class: 1
|   |--- system.cpu.commit.op_class_0::FloatAdd >  0.00
|   |   |--- weights: [362.00, 0.00] class: 0
|--- system.cpu.rename.serializingInsts >  0.00
|   |--- system.l2.demand_hits::total <= 0.02
|   |   |--- weights: [0.00, 96.00] class: 1
|   |--- system.l2.demand_hits::total >  0.02
|   |   |--- weights: [1.00, 0.00] class: 0
