|--- system.cpu.commit.op_class_0::FloatAdd <= 0.00
|   |--- weights: [0.00, 69.00] class: 1
|--- system.cpu.commit.op_class_0::FloatAdd >  0.00
|   |--- system.cpu.dcache.ReadReq_misses::total <= 0.00
|   |   |--- weights: [287.00, 0.00] class: 0
|   |--- system.cpu.dcache.ReadReq_misses::total >  0.00
|   |   |--- weights: [0.00, 20.00] class: 1
